digraph Tree {
node [shape=box] ;
0 [label="total_likes_on_outofstation_checkin_received <= 3595.354\nentropy = 1.0\nsamples = 1164\nvalue = [582, 582]\nclass = No"] ;
1 [label="Yearly_avg_view_on_travel_page <= 245.775\nentropy = 0.852\nsamples = 512\nvalue = [142, 370]\nclass = Yes"] ;
0 -> 1 [labeldistance=2.5, labelangle=45, headlabel="True"] ;
2 [label="number_of_adults <= 0.995\nentropy = 0.589\nsamples = 317\nvalue = [45, 272]\nclass = Yes"] ;
1 -> 2 ;
3 [label="Yearly_avg_view_on_travel_page <= 206.5\nentropy = 0.303\nsamples = 222\nvalue = [12, 210]\nclass = Yes"] ;
2 -> 3 ;
4 [label="entropy = 0.0\nsamples = 109\nvalue = [0, 109]\nclass = Yes"] ;
3 -> 4 ;
5 [label="Yearly_avg_view_on_travel_page <= 221.5\nentropy = 0.488\nsamples = 113\nvalue = [12, 101]\nclass = Yes"] ;
3 -> 5 ;
6 [label="week_since_last_outstation_checkin <= 2.019\nentropy = 0.908\nsamples = 34\nvalue = [11, 23]\nclass = Yes"] ;
5 -> 6 ;
7 [label="travelling_network_rating <= 2.596\nentropy = 0.993\nsamples = 20\nvalue = [11, 9]\nclass = No"] ;
6 -> 7 ;
8 [label="entropy = 0.0\nsamples = 7\nvalue = [0, 7]\nclass = Yes"] ;
7 -> 8 ;
9 [label="yearly_avg_Outstation_checkins <= 6.0\nentropy = 0.619\nsamples = 13\nvalue = [11, 2]\nclass = No"] ;
7 -> 9 ;
10 [label="entropy = 0.0\nsamples = 11\nvalue = [11, 0]\nclass = No"] ;
9 -> 10 ;
11 [label="entropy = 0.0\nsamples = 2\nvalue = [0, 2]\nclass = Yes"] ;
9 -> 11 ;
12 [label="entropy = 0.0\nsamples = 14\nvalue = [0, 14]\nclass = Yes"] ;
6 -> 12 ;
13 [label="total_likes_on_outstation_checkin_given <= 41994.299\nentropy = 0.098\nsamples = 79\nvalue = [1, 78]\nclass = Yes"] ;
5 -> 13 ;
14 [label="entropy = 0.0\nsamples = 78\nvalue = [0, 78]\nclass = Yes"] ;
13 -> 14 ;
15 [label="entropy = 0.0\nsamples = 1\nvalue = [1, 0]\nclass = No"] ;
13 -> 15 ;
16 [label="yearly_avg_Outstation_checkins <= 18.5\nentropy = 0.932\nsamples = 95\nvalue = [33, 62]\nclass = Yes"] ;
2 -> 16 ;
17 [label="travelling_network_rating <= 2.992\nentropy = 0.83\nsamples = 84\nvalue = [22, 62]\nclass = Yes"] ;
16 -> 17 ;
18 [label="Yearly_avg_view_on_travel_page <= 242.661\nentropy = 0.281\nsamples = 41\nvalue = [2, 39]\nclass = Yes"] ;
17 -> 18 ;
19 [label="montly_avg_comment_on_company_page <= 36.0\nentropy = 0.169\nsamples = 40\nvalue = [1, 39]\nclass = Yes"] ;
18 -> 19 ;
20 [label="entropy = 0.0\nsamples = 39\nvalue = [0, 39]\nclass = Yes"] ;
19 -> 20 ;
21 [label="entropy = 0.0\nsamples = 1\nvalue = [1, 0]\nclass = No"] ;
19 -> 21 ;
22 [label="entropy = 0.0\nsamples = 1\nvalue = [1, 0]\nclass = No"] ;
18 -> 22 ;
23 [label="total_likes_on_outstation_checkin_given <= 38601.695\nentropy = 0.996\nsamples = 43\nvalue = [20, 23]\nclass = Yes"] ;
17 -> 23 ;
24 [label="yearly_avg_Outstation_checkins <= 7.0\nentropy = 0.863\nsamples = 28\nvalue = [20, 8]\nclass = No"] ;
23 -> 24 ;
25 [label="entropy = 0.0\nsamples = 15\nvalue = [15, 0]\nclass = No"] ;
24 -> 25 ;
26 [label="travelling_network_rating <= 3.5\nentropy = 0.961\nsamples = 13\nvalue = [5, 8]\nclass = Yes"] ;
24 -> 26 ;
27 [label="entropy = 0.0\nsamples = 8\nvalue = [0, 8]\nclass = Yes"] ;
26 -> 27 ;
28 [label="entropy = 0.0\nsamples = 5\nvalue = [5, 0]\nclass = No"] ;
26 -> 28 ;
29 [label="entropy = 0.0\nsamples = 15\nvalue = [0, 15]\nclass = Yes"] ;
23 -> 29 ;
30 [label="entropy = 0.0\nsamples = 11\nvalue = [11, 0]\nclass = No"] ;
16 -> 30 ;
31 [label="total_likes_on_outstation_checkin_given <= 39790.752\nentropy = 1.0\nsamples = 195\nvalue = [97, 98]\nclass = Yes"] ;
1 -> 31 ;
32 [label="following_company_page <= 0.5\nentropy = 0.954\nsamples = 152\nvalue = [57, 95]\nclass = Yes"] ;
31 -> 32 ;
33 [label="member_in_family <= 3.5\nentropy = 0.958\nsamples = 87\nvalue = [54, 33]\nclass = No"] ;
32 -> 33 ;
34 [label="location__Historical site <= 0.5\nentropy = 1.0\nsamples = 67\nvalue = [34, 33]\nclass = No"] ;
33 -> 34 ;
35 [label="number_of_adults <= 0.987\nentropy = 0.876\nsamples = 44\nvalue = [13, 31]\nclass = Yes"] ;
34 -> 35 ;
36 [label="week_since_last_outstation_checkin <= 0.174\nentropy = 0.242\nsamples = 25\nvalue = [1, 24]\nclass = Yes"] ;
35 -> 36 ;
37 [label="entropy = 0.0\nsamples = 1\nvalue = [1, 0]\nclass = No"] ;
36 -> 37 ;
38 [label="entropy = 0.0\nsamples = 24\nvalue = [0, 24]\nclass = Yes"] ;
36 -> 38 ;
39 [label="member_in_family <= 2.5\nentropy = 0.949\nsamples = 19\nvalue = [12, 7]\nclass = No"] ;
35 -> 39 ;
40 [label="entropy = 0.0\nsamples = 5\nvalue = [0, 5]\nclass = Yes"] ;
39 -> 40 ;
41 [label="montly_avg_comment_on_company_page <= 22.345\nentropy = 0.592\nsamples = 14\nvalue = [12, 2]\nclass = No"] ;
39 -> 41 ;
42 [label="yearly_avg_Outstation_checkins <= 7.5\nentropy = 1.0\nsamples = 4\nvalue = [2, 2]\nclass = No"] ;
41 -> 42 ;
43 [label="entropy = 0.0\nsamples = 2\nvalue = [2, 0]\nclass = No"] ;
42 -> 43 ;
44 [label="entropy = 0.0\nsamples = 2\nvalue = [0, 2]\nclass = Yes"] ;
42 -> 44 ;
45 [label="entropy = 0.0\nsamples = 10\nvalue = [10, 0]\nclass = No"] ;
41 -> 45 ;
46 [label="total_likes_on_outofstation_checkin_received <= 2689.977\nentropy = 0.426\nsamples = 23\nvalue = [21, 2]\nclass = No"] ;
34 -> 46 ;
47 [label="entropy = 0.0\nsamples = 18\nvalue = [18, 0]\nclass = No"] ;
46 -> 47 ;
48 [label="Yearly_avg_comment_on_travel_page <= 63.762\nentropy = 0.971\nsamples = 5\nvalue = [3, 2]\nclass = No"] ;
46 -> 48 ;
49 [label="entropy = 0.0\nsamples = 3\nvalue = [3, 0]\nclass = No"] ;
48 -> 49 ;
50 [label="entropy = 0.0\nsamples = 2\nvalue = [0, 2]\nclass = Yes"] ;
48 -> 50 ;
51 [label="entropy = 0.0\nsamples = 20\nvalue = [20, 0]\nclass = No"] ;
33 -> 51 ;
52 [label="number_of_adults <= 2.783\nentropy = 0.27\nsamples = 65\nvalue = [3, 62]\nclass = Yes"] ;
32 -> 52 ;
53 [label="entropy = 0.0\nsamples = 59\nvalue = [0, 59]\nclass = Yes"] ;
52 -> 53 ;
54 [label="Yearly_avg_comment_on_travel_page <= 88.5\nentropy = 1.0\nsamples = 6\nvalue = [3, 3]\nclass = No"] ;
52 -> 54 ;
55 [label="entropy = 0.0\nsamples = 3\nvalue = [3, 0]\nclass = No"] ;
54 -> 55 ;
56 [label="entropy = 0.0\nsamples = 3\nvalue = [0, 3]\nclass = Yes"] ;
54 -> 56 ;
57 [label="total_likes_on_outofstation_checkin_received <= 3230.876\nentropy = 0.365\nsamples = 43\nvalue = [40, 3]\nclass = No"] ;
31 -> 57 ;
58 [label="entropy = 0.0\nsamples = 40\nvalue = [40, 0]\nclass = No"] ;
57 -> 58 ;
59 [label="entropy = 0.0\nsamples = 3\nvalue = [0, 3]\nclass = Yes"] ;
57 -> 59 ;
60 [label="location__Historical site <= 0.5\nentropy = 0.91\nsamples = 652\nvalue = [440, 212]\nclass = No"] ;
0 -> 60 [labeldistance=2.5, labelangle=-45, headlabel="False"] ;
61 [label="yearly_avg_Outstation_checkins <= 11.5\nentropy = 0.975\nsamples = 496\nvalue = [294, 202]\nclass = No"] ;
60 -> 61 ;
62 [label="total_likes_on_outstation_checkin_given <= 8269.5\nentropy = 0.852\nsamples = 328\nvalue = [237, 91]\nclass = No"] ;
61 -> 62 ;
63 [label="Yearly_avg_comment_on_travel_page <= 59.5\nentropy = 0.722\nsamples = 30\nvalue = [6, 24]\nclass = Yes"] ;
62 -> 63 ;
64 [label="entropy = 0.0\nsamples = 5\nvalue = [5, 0]\nclass = No"] ;
63 -> 64 ;
65 [label="total_likes_on_outofstation_checkin_received <= 4058.322\nentropy = 0.242\nsamples = 25\nvalue = [1, 24]\nclass = Yes"] ;
63 -> 65 ;
66 [label="entropy = 0.0\nsamples = 1\nvalue = [1, 0]\nclass = No"] ;
65 -> 66 ;
67 [label="entropy = 0.0\nsamples = 24\nvalue = [0, 24]\nclass = Yes"] ;
65 -> 67 ;
68 [label="Yearly_avg_view_on_travel_page <= 355.083\nentropy = 0.769\nsamples = 298\nvalue = [231, 67]\nclass = No"] ;
62 -> 68 ;
69 [label="total_likes_on_outstation_checkin_given <= 46878.973\nentropy = 0.61\nsamples = 240\nvalue = [204, 36]\nclass = No"] ;
68 -> 69 ;
70 [label="total_likes_on_outofstation_checkin_received <= 6245.806\nentropy = 0.448\nsamples = 214\nvalue = [194, 20]\nclass = No"] ;
69 -> 70 ;
71 [label="number_of_adults <= 0.956\nentropy = 0.597\nsamples = 138\nvalue = [118, 20]\nclass = No"] ;
70 -> 71 ;
72 [label="travelling_network_rating <= 1.769\nentropy = 0.811\nsamples = 64\nvalue = [48, 16]\nclass = No"] ;
71 -> 72 ;
73 [label="Yearly_avg_view_on_travel_page <= 232.5\nentropy = 0.469\nsamples = 10\nvalue = [1, 9]\nclass = Yes"] ;
72 -> 73 ;
74 [label="entropy = 0.0\nsamples = 1\nvalue = [1, 0]\nclass = No"] ;
73 -> 74 ;
75 [label="entropy = 0.0\nsamples = 9\nvalue = [0, 9]\nclass = Yes"] ;
73 -> 75 ;
76 [label="total_likes_on_outofstation_checkin_received <= 6081.5\nentropy = 0.556\nsamples = 54\nvalue = [47, 7]\nclass = No"] ;
72 -> 76 ;
77 [label="number_of_adults <= 0.305\nentropy = 0.342\nsamples = 47\nvalue = [44, 3]\nclass = No"] ;
76 -> 77 ;
78 [label="total_likes_on_outofstation_checkin_received <= 3701.745\nentropy = 0.154\nsamples = 45\nvalue = [44, 1]\nclass = No"] ;
77 -> 78 ;
79 [label="week_since_last_outstation_checkin <= 3.599\nentropy = 1.0\nsamples = 2\nvalue = [1, 1]\nclass = No"] ;
78 -> 79 ;
80 [label="entropy = 0.0\nsamples = 1\nvalue = [1, 0]\nclass = No"] ;
79 -> 80 ;
81 [label="entropy = 0.0\nsamples = 1\nvalue = [0, 1]\nclass = Yes"] ;
79 -> 81 ;
82 [label="entropy = 0.0\nsamples = 43\nvalue = [43, 0]\nclass = No"] ;
78 -> 82 ;
83 [label="entropy = 0.0\nsamples = 2\nvalue = [0, 2]\nclass = Yes"] ;
77 -> 83 ;
84 [label="montly_avg_comment_on_company_page <= 32.5\nentropy = 0.985\nsamples = 7\nvalue = [3, 4]\nclass = Yes"] ;
76 -> 84 ;
85 [label="entropy = 0.0\nsamples = 3\nvalue = [3, 0]\nclass = No"] ;
84 -> 85 ;
86 [label="entropy = 0.0\nsamples = 4\nvalue = [0, 4]\nclass = Yes"] ;
84 -> 86 ;
87 [label="week_since_last_outstation_checkin <= 4.435\nentropy = 0.303\nsamples = 74\nvalue = [70, 4]\nclass = No"] ;
71 -> 87 ;
88 [label="entropy = 0.0\nsamples = 54\nvalue = [54, 0]\nclass = No"] ;
87 -> 88 ;
89 [label="UserID <= 1009664.0\nentropy = 0.722\nsamples = 20\nvalue = [16, 4]\nclass = No"] ;
87 -> 89 ;
90 [label="entropy = 0.0\nsamples = 11\nvalue = [11, 0]\nclass = No"] ;
89 -> 90 ;
91 [label="Daily_Avg_mins_spend_on_traveling_page <= 21.468\nentropy = 0.991\nsamples = 9\nvalue = [5, 4]\nclass = No"] ;
89 -> 91 ;
92 [label="location__Other <= 0.5\nentropy = 0.722\nsamples = 5\nvalue = [1, 4]\nclass = Yes"] ;
91 -> 92 ;
93 [label="entropy = 0.0\nsamples = 4\nvalue = [0, 4]\nclass = Yes"] ;
92 -> 93 ;
94 [label="entropy = 0.0\nsamples = 1\nvalue = [1, 0]\nclass = No"] ;
92 -> 94 ;
95 [label="entropy = 0.0\nsamples = 4\nvalue = [4, 0]\nclass = No"] ;
91 -> 95 ;
96 [label="entropy = 0.0\nsamples = 76\nvalue = [76, 0]\nclass = No"] ;
70 -> 96 ;
97 [label="number_of_adults <= 0.5\nentropy = 0.961\nsamples = 26\nvalue = [10, 16]\nclass = Yes"] ;
69 -> 97 ;
98 [label="entropy = 0.0\nsamples = 16\nvalue = [0, 16]\nclass = Yes"] ;
97 -> 98 ;
99 [label="entropy = 0.0\nsamples = 10\nvalue = [10, 0]\nclass = No"] ;
97 -> 99 ;
100 [label="total_likes_on_outofstation_checkin_received <= 13127.0\nentropy = 0.997\nsamples = 58\nvalue = [27, 31]\nclass = Yes"] ;
68 -> 100 ;
101 [label="member_in_family <= 1.5\nentropy = 0.876\nsamples = 44\nvalue = [13, 31]\nclass = Yes"] ;
100 -> 101 ;
102 [label="entropy = 0.0\nsamples = 9\nvalue = [9, 0]\nclass = No"] ;
101 -> 102 ;
103 [label="Yearly_avg_view_on_travel_page <= 388.5\nentropy = 0.513\nsamples = 35\nvalue = [4, 31]\nclass = Yes"] ;
101 -> 103 ;
104 [label="entropy = 0.0\nsamples = 30\nvalue = [0, 30]\nclass = Yes"] ;
103 -> 104 ;
105 [label="travelling_network_rating <= 3.0\nentropy = 0.722\nsamples = 5\nvalue = [4, 1]\nclass = No"] ;
103 -> 105 ;
106 [label="entropy = 0.0\nsamples = 4\nvalue = [4, 0]\nclass = No"] ;
105 -> 106 ;
107 [label="entropy = 0.0\nsamples = 1\nvalue = [0, 1]\nclass = Yes"] ;
105 -> 107 ;
108 [label="entropy = 0.0\nsamples = 14\nvalue = [14, 0]\nclass = No"] ;
100 -> 108 ;
109 [label="travelling_network_rating <= 3.985\nentropy = 0.924\nsamples = 168\nvalue = [57, 111]\nclass = Yes"] ;
61 -> 109 ;
110 [label="location__Beach <= 0.5\nentropy = 0.676\nsamples = 118\nvalue = [21, 97]\nclass = Yes"] ;
109 -> 110 ;
111 [label="Yearly_avg_comment_on_travel_page <= 97.934\nentropy = 0.24\nsamples = 76\nvalue = [3, 73]\nclass = Yes"] ;
110 -> 111 ;
112 [label="entropy = 0.0\nsamples = 60\nvalue = [0, 60]\nclass = Yes"] ;
111 -> 112 ;
113 [label="member_in_family <= 3.5\nentropy = 0.696\nsamples = 16\nvalue = [3, 13]\nclass = Yes"] ;
111 -> 113 ;
114 [label="entropy = 0.0\nsamples = 13\nvalue = [0, 13]\nclass = Yes"] ;
113 -> 114 ;
115 [label="entropy = 0.0\nsamples = 3\nvalue = [3, 0]\nclass = No"] ;
113 -> 115 ;
116 [label="number_of_adults <= 0.5\nentropy = 0.985\nsamples = 42\nvalue = [18, 24]\nclass = Yes"] ;
110 -> 116 ;
117 [label="total_likes_on_outstation_checkin_given <= 12219.5\nentropy = 0.736\nsamples = 29\nvalue = [6, 23]\nclass = Yes"] ;
116 -> 117 ;
118 [label="entropy = 0.0\nsamples = 4\nvalue = [4, 0]\nclass = No"] ;
117 -> 118 ;
119 [label="total_likes_on_outofstation_checkin_received <= 14809.0\nentropy = 0.402\nsamples = 25\nvalue = [2, 23]\nclass = Yes"] ;
117 -> 119 ;
120 [label="entropy = 0.0\nsamples = 23\nvalue = [0, 23]\nclass = Yes"] ;
119 -> 120 ;
121 [label="entropy = 0.0\nsamples = 2\nvalue = [2, 0]\nclass = No"] ;
119 -> 121 ;
122 [label="total_likes_on_outstation_checkin_given <= 13046.052\nentropy = 0.391\nsamples = 13\nvalue = [12, 1]\nclass = No"] ;
116 -> 122 ;
123 [label="entropy = 0.0\nsamples = 1\nvalue = [0, 1]\nclass = Yes"] ;
122 -> 123 ;
124 [label="entropy = 0.0\nsamples = 12\nvalue = [12, 0]\nclass = No"] ;
122 -> 124 ;
125 [label="Yearly_avg_view_on_travel_page <= 339.0\nentropy = 0.855\nsamples = 50\nvalue = [36, 14]\nclass = No"] ;
109 -> 125 ;
126 [label="entropy = 0.0\nsamples = 28\nvalue = [28, 0]\nclass = No"] ;
125 -> 126 ;
127 [label="Daily_Avg_mins_spend_on_traveling_page <= 16.0\nentropy = 0.946\nsamples = 22\nvalue = [8, 14]\nclass = Yes"] ;
125 -> 127 ;
128 [label="entropy = 0.0\nsamples = 14\nvalue = [0, 14]\nclass = Yes"] ;
127 -> 128 ;
129 [label="entropy = 0.0\nsamples = 8\nvalue = [8, 0]\nclass = No"] ;
127 -> 129 ;
130 [label="yearly_avg_Outstation_checkins <= 28.5\nentropy = 0.344\nsamples = 156\nvalue = [146, 10]\nclass = No"] ;
60 -> 130 ;
131 [label="week_since_last_outstation_checkin <= 5.5\nentropy = 0.24\nsamples = 152\nvalue = [146, 6]\nclass = No"] ;
130 -> 131 ;
132 [label="entropy = 0.0\nsamples = 121\nvalue = [121, 0]\nclass = No"] ;
131 -> 132 ;
133 [label="travelling_network_rating <= 2.5\nentropy = 0.709\nsamples = 31\nvalue = [25, 6]\nclass = No"] ;
131 -> 133 ;
134 [label="travelling_network_rating <= 1.5\nentropy = 0.971\nsamples = 10\nvalue = [4, 6]\nclass = Yes"] ;
133 -> 134 ;
135 [label="entropy = 0.0\nsamples = 4\nvalue = [4, 0]\nclass = No"] ;
134 -> 135 ;
136 [label="entropy = 0.0\nsamples = 6\nvalue = [0, 6]\nclass = Yes"] ;
134 -> 136 ;
137 [label="entropy = 0.0\nsamples = 21\nvalue = [21, 0]\nclass = No"] ;
133 -> 137 ;
138 [label="entropy = 0.0\nsamples = 4\nvalue = [0, 4]\nclass = Yes"] ;
130 -> 138 ;
}